digraph Tree {
node [shape=box, style="filled", color="black", fontname="helvetica"] ;
edge [fontname="helvetica"] ;
0 [label="tGravityAcc-min()-X <= 0.096\ngini = 0.831\nsamples = 7351\nvalue = [1226, 1073, 986, 1286, 1373, 1407]\nclass = 2", fillcolor="#fffefe"] ;
1 [label="gini = 0.0\nsamples = 1407\nvalue = [0, 0, 0, 0, 0, 1407]\nclass = 2", fillcolor="#e5399d"] ;
0 -> 1 [labeldistance=2.5, labelangle=45, headlabel="True"] ;
2 [label="fBodyAcc-mad()-X <= -0.667\ngini = 0.797\nsamples = 5944\nvalue = [1226, 1073, 986, 1286, 1373, 0]\nclass = 3", fillcolor="#fdfbff"] ;
0 -> 2 [labeldistance=2.5, labelangle=-45, headlabel="False"] ;
3 [label="angle(Y,gravityMean) <= 0.14\ngini = 0.499\nsamples = 2659\nvalue = [0, 0, 0, 1286, 1373, 0]\nclass = 3", fillcolor="#f7f2fd"] ;
2 -> 3 ;
4 [label="tGravityAcc-energy()-Y <= -1.0\ngini = 0.234\nsamples = 1357\nvalue = [0, 0, 0, 1173, 184, 0]\nclass = 1", fillcolor="#58ace9"] ;
3 -> 4 ;
5 [label="angle(Z,gravityMean) <= -0.022\ngini = 0.453\nsamples = 95\nvalue = [0, 0, 0, 33, 62, 0]\nclass = 3", fillcolor="#c4a2f3"] ;
4 -> 5 ;
6 [label="gini = 0.468\nsamples = 51\nvalue = [0, 0, 0, 32, 19, 0]\nclass = 1", fillcolor="#afd7f4"] ;
5 -> 6 ;
7 [label="gini = 0.044\nsamples = 44\nvalue = [0, 0, 0, 1, 43, 0]\nclass = 3", fillcolor="#843ee6"] ;
5 -> 7 ;
8 [label="tBodyGyro-max()-X <= -0.869\ngini = 0.175\nsamples = 1262\nvalue = [0, 0, 0, 1140, 122, 0]\nclass = 1", fillcolor="#4ea7e8"] ;
4 -> 8 ;
9 [label="gini = 0.068\nsamples = 994\nvalue = [0, 0, 0, 959, 35, 0]\nclass = 1", fillcolor="#40a1e6"] ;
8 -> 9 ;
10 [label="gini = 0.438\nsamples = 268\nvalue = [0, 0, 0, 181, 87, 0]\nclass = 1", fillcolor="#98ccf1"] ;
8 -> 10 ;
11 [label="tBodyGyro-min()-X <= 0.845\ngini = 0.159\nsamples = 1302\nvalue = [0, 0, 0, 113, 1189, 0]\nclass = 3", fillcolor="#8d4ce7"] ;
3 -> 11 ;
12 [label="tBodyGyro-max()-X <= -0.893\ngini = 0.121\nsamples = 1240\nvalue = [0, 0, 0, 80, 1160, 0]\nclass = 3", fillcolor="#8a47e7"] ;
11 -> 12 ;
13 [label="gini = 0.0\nsamples = 8\nvalue = [0, 0, 0, 8, 0, 0]\nclass = 1", fillcolor="#399de5"] ;
12 -> 13 ;
14 [label="gini = 0.11\nsamples = 1232\nvalue = [0, 0, 0, 72, 1160, 0]\nclass = 3", fillcolor="#8945e7"] ;
12 -> 14 ;
15 [label="tGravityAcc-min()-Y <= -0.139\ngini = 0.498\nsamples = 62\nvalue = [0, 0, 0, 33, 29, 0]\nclass = 1", fillcolor="#e7f3fc"] ;
11 -> 15 ;
16 [label="gini = 0.293\nsamples = 28\nvalue = [0, 0, 0, 5, 23, 0]\nclass = 3", fillcolor="#9c64eb"] ;
15 -> 16 ;
17 [label="gini = 0.291\nsamples = 34\nvalue = [0, 0, 0, 28, 6, 0]\nclass = 1", fillcolor="#63b2eb"] ;
15 -> 17 ;
18 [label="fBodyAccMag-energy() <= -0.525\ngini = 0.664\nsamples = 3285\nvalue = [1226, 1073, 986, 0, 0, 0]\nclass = 5", fillcolor="#fdf6f1"] ;
2 -> 18 ;
19 [label="tGravityAcc-arCoeff()-Z,2 <= 0.564\ngini = 0.56\nsamples = 2364\nvalue = [1207, 987, 170, 0, 0, 0]\nclass = 5", fillcolor="#fbebdf"] ;
18 -> 19 ;
20 [label="fBodyGyro-maxInds-X <= -0.967\ngini = 0.343\nsamples = 1367\nvalue = [1091, 143, 133, 0, 0, 0]\nclass = 5", fillcolor="#eb9d66"] ;
19 -> 20 ;
21 [label="gini = 0.57\nsamples = 159\nvalue = [13, 77, 69, 0, 0, 0]\nclass = 4", fillcolor="#f6fded"] ;
20 -> 21 ;
22 [label="gini = 0.198\nsamples = 1208\nvalue = [1078, 66, 64, 0, 0, 0]\nclass = 5", fillcolor="#e88f50"] ;
20 -> 22 ;
23 [label="tGravityAcc-min()-X <= 0.956\ngini = 0.268\nsamples = 997\nvalue = [116, 844, 37, 0, 0, 0]\nclass = 4", fillcolor="#aeea5b"] ;
19 -> 23 ;
24 [label="gini = 0.17\nsamples = 917\nvalue = [56, 833, 28, 0, 0, 0]\nclass = 4", fillcolor="#a7e84c"] ;
23 -> 24 ;
25 [label="gini = 0.406\nsamples = 80\nvalue = [60, 11, 9, 0, 0, 0]\nclass = 5", fillcolor="#eda672"] ;
23 -> 25 ;
26 [label="tBodyGyro-correlation()-Y,Z <= 0.276\ngini = 0.206\nsamples = 921\nvalue = [19, 86, 816, 0, 0, 0]\nclass = 6", fillcolor="#52e891"] ;
18 -> 26 ;
27 [label="tGravityAcc-arCoeff()-X,3 <= -0.445\ngini = 0.107\nsamples = 860\nvalue = [17, 31, 812, 0, 0, 0]\nclass = 6", fillcolor="#44e788"] ;
26 -> 27 ;
28 [label="gini = 0.086\nsamples = 847\nvalue = [7, 31, 809, 0, 0, 0]\nclass = 6", fillcolor="#42e687"] ;
27 -> 28 ;
29 [label="gini = 0.355\nsamples = 13\nvalue = [10, 0, 3, 0, 0, 0]\nclass = 5", fillcolor="#eda774"] ;
27 -> 29 ;
30 [label="fBodyAccJerk-bandsEnergy()-1,24 <= -0.475\ngini = 0.182\nsamples = 61\nvalue = [2, 55, 4, 0, 0, 0]\nclass = 4", fillcolor="#a7e84e"] ;
26 -> 30 ;
31 [label="gini = 0.0\nsamples = 55\nvalue = [0, 55, 0, 0, 0, 0]\nclass = 4", fillcolor="#9de539"] ;
30 -> 31 ;
32 [label="gini = 0.444\nsamples = 6\nvalue = [2, 0, 4, 0, 0, 0]\nclass = 6", fillcolor="#9cf2c0"] ;
30 -> 32 ;
}